svm_type c_svc
kernel_type rbf
gamma 0.0001
nr_class 5
total_sv 278
rho 0.43183099879738779 10.552632290394381 8.3082728436745938 -2.6405324325424266 -0.39468504861471226 -0.40482448959859874 -0.42499961717329776 12.073565739563396 -4.5870876272151255 -2.8537917087500566
label 5 4 6 1 3
nr_sv 98 2 62 47 69
SV
0 0 0 100 2:5.2348058 3:0.41592842 4:0.64492513 5:4.1212134 6:7.3108686 7:4.1212134 8:261.74029 9:16 10:1.6178509 
0 0 0 5.4835589169732426 2:5.1716009 3:0.17964831 4:0.4238494 5:4.4049518 6:6.0906157 7:4.4049518 8:258.58004 9:24 10:0.068261603 
0 0 0 100 2:5.2439572 3:0.27496063 4:0.52436688 5:4.056501 6:6.9935971 7:4.056501 8:262.19786 9:24 10:0.088951524 
0 0 0 100 2:5.1077221 3:0.13772739 4:0.37111641 5:4.1276143 6:5.9722358 7:4.1276143 8:255.3861 9:24 10:0.43220587 
0 100 0 0 2:5.0907811 3:0.10954784 4:0.33098012 5:5.1444339 6:5.7563183 7:4.3383868 8:254.53905 9:24 10:0.32632198 
0 0 0 100 2:5.2024573 3:0.29918237 4:0.54697566 5:3.8456729 6:6.7009552 7:3.8456729 8:260.12286 9:11 10:0.47591328 
0 0 0 100 2:5.0778434 3:0.18077814 4:0.42518012 5:4.2543155 6:6.1824914 7:4.2543155 8:253.89217 9:10 10:0.67420106 
0 0 0 100 2:5.0716867 3:0.19657844 4:0.44337167 5:4.1344407 6:6.1629214 7:4.1344407 8:253.58433 9:12 10:0.43600031 
0 0 0 100 2:5.0680464 3:0.11404191 4:0.33770093 5:4.102097 6:5.7756731 7:4.102097 8:253.40232 9:11 10:0.21068525 
0 0 0 100 2:5.0475759 3:0.13958583 4:0.37361187 5:4.0241272 6:5.8609556 7:4.0241272 8:252.37879 9:19 10:0.27880253 
0 0 0 100 2:5.0537102 3:0.16524522 4:0.40650366 5:4.1450211 6:5.9890567 7:4.1450211 8:252.68551 9:19 10:0.31239638 
0 0 0 100 2:5.1217047 3:0.20479738 4:0.45254544 5:4.1243181 6:6.127218 7:4.1243181 8:256.08523 9:13 10:0.35714256 
0 0 0 100 2:5.0636077 3:0.10841256 4:0.32926063 5:4.382602 6:5.8007241 7:4.382602 8:253.18039 9:17 10:0.081409755 
0 0 0 100 2:5.0804606 3:0.13515972 4:0.36764074 5:4.2693793 6:5.7971372 7:4.2693793 8:254.02303 9:17 10:0.41755549 
0 0 0 100 2:5.0868057 3:0.24140009 4:0.49132483 5:3.6301515 6:6.6454496 7:3.6301515 8:254.34028 10:0.06723292 
0 0 0 100 2:5.0993896 3:0.14740122 4:0.38392866 5:4.8741358 6:5.7901986 7:4.0335592 8:254.96948 9:24 10:0.099160866 
0 0 0 100 2:5.0663794 3:0.18814384 4:0.4337555 5:4.1066288 6:6.0890065 7:4.1066288 8:253.31897 9:16 10:0.74025363 
0 0 0 100 2:5.1243256 3:0.2525508 4:0.50254433 5:3.902102 6:6.4697141 7:3.902102 8:256.21628 9:22 10:0.11990635 
0 0 0 100 2:5.0683108 3:0.22489807 4:0.4742342 5:3.786608 6:6.0351636 7:3.786608 8:253.41554 9:3 10:0.2809275 
0 0 0 100 2:5.0541459 3:0.32255352 4:0.56793796 5:3.3882739 6:6.5263466 7:3.3882739 8:252.70729 9:10 10:0.51622406 
0 0 0 100 2:5.0851088 3:0.12119611 4:0.34813232 5:4.1214075 6:5.8265599 7:4.1214075 8:254.25544 9:24 10:0.032708022 
0 0 0 100 2:5.0802198 3:0.19800717 4:0.44497997 5:3.8408853 6:5.8981014 7:3.8408853 8:254.01099 9:17 10:0.59193903 
0 0 0 100 2:5.1142021 3:0.24041684 4:0.4903232 5:4.3521948 6:6.6909192 7:4.3521948 8:255.71011 9:17 10:0.41840229 
0 0 0 100 2:5.1588348 3:0.2395196 4:0.4894074 5:4.2344303 6:6.6273071 7:4.2344303 8:257.94174 9:14 10:0.39035609 
0 0 0 100 2:5.1000959 3:0.1819182 4:0.4265187 5:4.2355637 6:5.9782272 7:4.2355637 8:255.00479 9:24 10:0.068239674 
0 0 0 100 2:5.1529353 3:0.31270586 4:0.55920109 5:3.9522652 6:7.2701307 7:3.9522652 8:257.64676 9:3 10:0.71885404 
0 0 0 100 2:5.1083807 3:0.15203857 4:0.38992124 5:4.1377772 6:6.0465197 7:4.1377772 8:255.41904 9:24 10:0.3687612 
0 0 0 61.109562284624239 2:5.0405875 3:0.091661491 4:0.30275649 5:4.5716518 6:5.8379791 7:4.5716518 8:252.02938 9:15 10:0.14454134 
0 0 0 100 2:5.2154409 3:0.32124036 4:0.5667807 5:4.2899883 6:8.1526928 7:4.2899883 8:260.77204 9:8 10:0.86648227 
0 0 0 100 2:5.0314569 3:0.16488181 4:0.40605641 5:4.2334383 6:6.2786304 7:4.2334383 8:251.57284 9:3 10:0.61818794 
0 0 0 100 2:5.1093104 3:0.17313122 4:0.41609039 5:4.1427527 6:5.9100592 7:4.1427527 8:255.46552 9:12 10:0.24527996 
0 0 0 76.824802338159188 2:5.0465114 3:0.12613082 4:0.35514901 5:4.4009544 6:5.9304637 7:4.4009544 8:252.32557 9:11 10:0.67284888 
0 0 0 100 2:5.1629774 3:0.23884043 4:0.48871303 5:3.8310834 6:6.1049488 7:3.8310834 8:258.14887 9:9 10:0.11161367 
0 0 0 100 2:5.0811637 3:0.23071934 4:0.48033253 5:3.9175503 6:6.4518524 7:3.9175503 8:254.05819 9:9 10:0.68985568 
0 0 0 100 2:5.2173549 3:0.26170362 4:0.51156976 5:4.5783403 6:7.1823673 7:4.5783403 8:260.86775 9:21 10:0.15907515 
0 0 0 100 2:5.1012683 3:0.22677365 4:0.47620757 5:3.8959466 6:6.5223922 7:3.8959466 8:255.06342 9:24 10:0.30235436 
0 0 0 100 2:5.2266843 3:0.24869877 4:0.49869707 5:3.9885336 6:6.4167905 7:3.9885336 8:261.33422 9:24 10:0.10715503 
0 69.074141009713912 0 0 2:5.0883409 3:0.081474925 4:0.28543813 5:4.5898584 6:5.7990689 7:4.5898584 8:254.41704 9:24 10:0.32065888 
0 0 0 100 2:5.1065241 3:0.12821139 4:0.35806619 5:4.2386319 6:5.9515712 7:4.2386319 8:255.32621 9:16 10:0.41463496 
0 0 0 100 2:5.0906331 3:0.13865485 4:0.37236387 5:4.495064 6:6.2334902 7:4.495064 8:254.53165 9:24 10:0.27816322 
0 0 0 100 2:5.0542687 3:0.14668785 4:0.3829985 5:4.1939957 6:6.0349979 7:4.1939957 8:252.71344 9:9 10:0.40527873 
0 0 0 100 2:5.0716315 3:0.13929022 4:0.37321606 5:4.2374993 6:5.9447119 7:4.2374993 8:253.58157 9:22 10:0.26445196 
0 0 0 100 2:5.0530491 3:0.14985524 4:0.38711141 5:4.382602 6:6.2843934 7:4.382602 8:252.65245 9:24 10:0.14781612 
0 0 0 100 2:5.1311922 3:0.30206687 4:0.5496061 5:3.2380859 6:6.2177488 7:3.2380859 8:256.55961 9:24 10:0.18622055 
0 0 0 100 2:5.1946757 3:0.59487233 4:0.77127967 5:3.6171259 6:8.4230161 7:3.6171259 8:259.73379 9:21 10:0.98955068 
0 100 0 0 2:5.1455545 3:0.14692487 4:0.3833078 5:5.100745 6:6.1277402 7:4.4830347 8:257.27773 9:24 10:0.053715561 
0 0 0 100 2:5.139536 3:0.29232196 4:0.54066807 5:3.6810868 6:6.1118246 7:3.6810868 8:256.9768 9:14 10:0.13271029 
0 0 0 100 2:5.087021 3:0.11172922 4:0.33425922 5:4.4486852 6:5.9885558 7:4.4486852 8:254.35105 9:18 10:0.45430928 
0 0 0 100 2:5.1095462 3:0.25051378 4:0.50051351 5:4.1008292 6:6.4132675 7:4.1008292 8:255.47731 9:24 10:0.50414583 
0 0 0 100 2:5.1281898 3:0.2660295 4:0.51578048 5:3.3059341 6:6.0733516 7:3.3059341 8:256.40949 9:17 10:0.17447335 
0 0 0 100 2:5.1279535 3:0.23343673 4:0.48315291 5:3.9874303 6:6.0354287 7:3.9874303 8:256.39768 9:23 10:0.24483565 
0 0 0 100 2:5.1139147 3:0.18711679 4:0.43256999 5:4.2195734 6:6.0016664 7:4.2195734 8:255.69573 9:24 10:0.25381002 
0 100 100 0 2:5.3562936 3:0.13917492 4:0.37306156 5:4.7222452 6:6.2642478 7:4.7222452 8:267.81468 9:13 10:0.29368543 
0 100 0 0 2:5.3613543 3:0.16036778 4:0.40045946 5:4.3732368 6:6.2051591 7:4.3732368 8:268.06772 9:11 10:0.31647441 
0 100 100 0 2:5.3614363 3:0.13996906 4:0.37412439 5:4.6023038 6:6.2720332 7:4.6023038 8:268.07181 9:9 10:0.21905246 
0 100 100 0 2:5.3474216 3:0.15069051 4:0.38818875 5:4.4818746 6:6.060792 7:4.4818746 8:267.37108 9:14 10:0.43244044 
0 100 0 0 2:5.326242 3:0.16980227 4:0.41207072 5:4.6002609 6:6.1993871 7:4.6002609 8:266.3121 9:17 10:0.062109447 
0 100 100 0 2:5.3499421 3:0.14366321 4:0.3790293 5:4.5269858 6:6.2679821 7:4.5269858 8:267.49711 9:14 10:0.096312076 
0 0 0 100 2:5.3137669 3:0.32044976 4:0.56608282 5:4.0341046 6:7.7586339 7:4.0341046 8:265.68834 9:18 10:0.70895348 
0 100 100 0 2:5.3585932 3:0.23983925 4:0.48973386 5:5.3948494 6:6.4258852 7:4.2702225 8:267.92966 9:18 10:0.68906154 
0 100 100 0 2:5.3436504 3:0.18453609 4:0.42957664 5:5.4219185 6:6.5249674 7:4.5087027 8:267.18252 9:6 10:0.40025124 
0 100 17.169879316601087 0 2:5.2908245 3:0.2085446 4:0.45666683 5:4.5334755 6:6.286748 7:4.5334755 8:264.54122 10:0.084208633 
0 0 100 0 2:5.5867733 3:0.61261221 4:0.78269548 5:4.0057958 6:7.8727124 7:4.0057958 8:279.33866 9:14 10:1.9469219 
0 100 100 0 2:5.4311599 3:0.23703047 4:0.48685775 5:5.6617312 6:6.5812157 7:3.9699874 8:271.55799 9:10 10:1.0545734 
0 100 100 0 2:5.3267256 3:0.081026429 4:0.28465142 5:4.7499474 6:5.8016894 7:4.7499474 8:266.33628 9:8 10:0.17293593 
0 100 100 0 2:5.44342 3:0.26368275 4:0.51350049 5:4.424387 6:6.7208035 7:4.424387 8:272.171 9:16 10:0.67651035 
0 100 0 0 2:5.2868022 3:0.13471431 4:0.36703448 5:4.3709496 6:6.0838803 7:4.3709496 8:264.34011 10:0.43811643 
0 100 0 0 2:5.3642353 3:0.19684373 4:0.44367074 5:4.4746843 6:6.4555712 7:4.4746843 8:268.21176 9:8 10:0.17892713 
0 0 0 100 2:5.7179967 3:2.6571617 4:1.6300803 5:3.1190383 6:14.273066 7:3.1190383 8:285.89983 9:24 10:0.25220663 
0 100 0 0 2:5.339147 3:0.12790141 4:0.35763307 5:4.347137 6:6.0883167 7:4.347137 8:266.95735 9:6 10:0.22507601 
0 0 0 100 2:5.1786735 3:0.24799657 4:0.49799255 5:4.2667552 6:6.5664602 7:4.2667552 8:258.93368 9:17 10:0.11594438 
0 100 100 0 2:5.343668 3:0.27206844 4:0.52160181 5:5.2114489 6:6.7277336 7:4.3563746 8:267.1834 9:3 10:0.24222465 
0 0 0 100 2:5.3237405 3:0.37869889 4:0.61538515 5:4.0746043 6:7.6441873 7:4.0746043 8:266.18703 9:14 10:0.40072684 
0 100 100 0 2:5.3580101 3:0.22076819 4:0.46985975 5:4.4631827 6:6.2098631 7:4.4631827 8:267.9005 9:10 10:0.3287458 
0 0 0 100 2:5.4281509 3:0.62441015 4:0.79019627 5:3.8073613 6:7.9425437 7:3.8073613 8:271.40754 9:16 10:0.63099409 
0 0 0 100 2:5.3022711 3:0.32292089 4:0.56826129 5:4.0109351 6:6.649812 7:4.0109351 8:265.11356 9:22 10:1.192772 
3.4055289840921117 6.8787659316976297 100 45.745436824485786 2:5.9633899 3:2.2881166 4:1.5126522 5:3.2898632 6:12.283794 7:3.2898632 8:298.1695 9:1 10:0.23917706 
0 0 -0 100 2:5.8144278 3:2.2575738 4:1.5025225 5:4.4153369 6:14.286819 7:4.4153369 8:290.72139 9:21 10:1.5609729 
0 100 100 0 2:5.3492341 3:0.16947062 4:0.41166809 5:4.5447112 6:6.3455811 7:4.5447112 8:267.4617 9:20 10:0.017521543 
0 100 100 0 2:5.3843769 3:0.21813327 4:0.4670474 5:4.4395495 6:6.3776485 7:4.4395495 8:269.21885 9:24 10:0.027243527 
0 0 0 100 2:5.6673785 3:1.6679649 4:1.2914971 5:3.886438 6:10.924065 7:3.886438 8:283.36893 9:5 10:2.1443886 
0 93.63740360372816 100 0 2:5.417343 3:0.22898732 4:0.4785262 5:4.3193055 6:6.5641755 7:4.3193055 8:270.86715 9:7 10:0.65915043 
0 0 100 0 2:5.4047937 3:0.18221349 4:0.42686472 5:4.0247733 6:6.3016823 7:4.0247733 8:270.23968 9:5 10:0.13240288 
0 100 100 0 2:5.339267 3:0.16190747 4:0.40237728 5:4.5779035 6:6.0819076 7:4.5779035 8:266.96335 9:24 10:0.38085682 
0 100 100 0 2:5.4671026 3:0.22180523 4:0.47096203 5:5.4801825 6:6.6081768 7:4.5432587 8:273.35513 9:12 10:0.39374488 
0 100 82.529908124265475 0 2:5.3598278 3:0.19202181 4:0.43820293 5:4.2409433 6:6.2123104 7:4.2409433 8:267.99139 9:24 10:0.38221426 
0 100 100 0 2:5.4556007 3:0.22689278 4:0.47633263 5:4.6122012 6:6.3308135 7:4.6122012 8:272.78004 9:16 10:0.45851459 
0 100 100 0 2:5.4962248 3:0.36941654 4:0.60779646 5:4.1380672 6:6.773271 7:4.1380672 8:274.81124 9:7 10:0.4087116 
0 0 0 100 2:5.268951 3:0.37927542 4:0.61585341 5:4.1804784 6:6.9241028 7:4.1804784 8:263.44755 9:17 10:0.96464481 
0 100 0 0 2:5.2926457 3:0.14054101 4:0.374888 5:4.7081631 6:6.3590251 7:4.7081631 8:264.63229 9:10 10:0.46165009 
0 100 0 0 2:5.2847678 3:0.13474917 4:0.36708197 5:4.6452126 6:6.2604153 7:4.6452126 8:264.23839 9:19 10:0.32567119 
0 100 100 0 2:5.3067662 3:0.20162476 4:0.44902646 5:5.4687476 6:6.3445725 7:4.6341342 8:265.33831 9:20 10:0.18562974 
0 100 0 0 2:5.1946954 3:0.069972163 4:0.26452252 5:4.669818 6:5.8619792 7:4.669818 8:259.73477 9:22 10:0.24600087 
0 100 0 0 2:5.2554856 3:0.080006691 4:0.28285454 5:4.7634441 6:5.8575421 7:4.7634441 8:262.77428 9:11 10:0.29905592 
0 100 0 0 2:5.259804 3:0.091493596 4:0.30247908 5:4.6200866 6:5.874317 7:4.6200866 8:262.9902 9:21 10:0.34891751 
0 100 100 0 2:5.576549 3:0.49848477 4:0.70603454 5:4.2603756 6:7.591706 7:4.2603756 8:278.82745 9:20 10:0.67939922 
0 100 100 0 2:5.5503056 3:0.26892399 4:0.51857882 5:4.5481425 6:7.0410511 7:4.5481425 8:277.51528 9:10 10:1.0347928 
0 100 100 0 2:5.4218981 3:0.16555743 4:0.40688749 5:4.5899455 6:6.428499 7:4.5899455 8:271.0949 9:19 10:0.77037548 
-2.8867757550430082 1.6403530528133063 2.3335480995570341 2.2572182846911324 2:7.1498086 3:14.488597 4:3.8063889 5:1.2757743 6:15.422309 7:1.2757743 8:357.49043 9:11 10:3.3500153 
-0.51875322904910337 0.57621328603853705 0.55424574496660051 0.5357159279523187 2:11.124106 3:32.107832 4:5.6663774 5:3.4963981 6:22.563688 7:3.4963981 8:556.20532 9:22 10:3.9464373 
-0 -0 100 0 2:5.4170291 3:0.0031562642 4:0.056180639 5:5.3445299 6:5.5358468 7:5.3240962 8:270.85145 10:0.04141617 
-0 -0 100 0 2:5.442823 3:0.0030215565 4:0.054968686 5:5.4315375 6:5.5365693 7:5.2319404 8:272.14115 9:7 10:0.13612667 
-0 -0 100 0 2:5.4498312 3:0.0033077486 4:0.05751303 5:5.3813753 6:5.5748722 7:5.3322791 8:272.49156 9:19 10:0.093462599 
-0 -0 100 0 2:5.4482663 3:0.0033626623 4:0.057988467 5:5.4944699 6:5.5787095 7:5.3301407 8:272.41331 9:19 10:0.054971897 
-0 -0 100 0 2:5.4489793 3:0.0025130815 4:0.050130644 5:5.4049607 6:5.5953195 7:5.3090489 8:272.44896 9:3 10:0.05360305 
-0 -0 100 0 2:5.4478557 3:0.0026522791 4:0.051500283 5:5.4067365 6:5.5425987 7:5.2974333 8:272.39278 9:20 10:0.048644787 
-0 -0 100 0 2:5.4570096 3:0.0021105552 4:0.045940779 5:5.4135386 6:5.5997857 7:5.3532046 8:272.85048 9:3 10:0.051530534 
-0 -0 100 0 2:5.4435568 3:0.0022417544 4:0.047347169 5:5.437058 6:5.5637757 7:5.3283393 8:272.17784 9:20 10:0.052307676 
-0 -1.0995284341392551 100 0 2:5.4657749 3:0.0027607546 4:0.052542883 5:5.4678698 6:5.5902773 7:5.3115346 8:273.28874 9:3 10:0.098861015 
-0 -0 100 0 2:5.4549689 3:0.0024346107 4:0.049341775 5:5.4179332 6:5.5435007 7:5.3283393 8:272.74844 9:22 10:0.040681881 
-0 -0 100 0 2:5.4580082 3:0.0025544355 4:0.050541423 5:5.4431241 6:5.5325582 7:5.3021128 8:272.90041 9:9 10:0.077466636 
-0 -0 100 0 2:5.4435881 3:0.0031000748 4:0.055678316 5:5.4870393 6:5.5269883 7:5.3206766 8:272.17941 9:3 10:0.033023706 
-0 -0 100 0 2:5.4464091 3:0.0025479574 4:0.050477295 5:5.4067365 6:5.558489 7:5.3090489 8:272.32045 9:23 10:0.15411071 
-0 -1.1170379047125885 100 0 2:5.4795504 3:0.002143135 4:0.046294006 5:5.4834296 6:5.5944615 7:5.3499533 8:273.97752 9:24 10:0.019155722 
-0 -0 100 0 2:5.4647879 3:0.0023169675 4:0.048134889 5:5.4696983 6:5.5857676 7:5.3635063 8:273.2394 9:17 10:0.02850698 
-100 -0 0 100 2:5.3630009 3:0.0061970146 4:0.078721119 5:5.2251699 6:5.5903131 7:5.2251699 8:268.15005 9:22 10:0.10370015 
-100 -0 0 100 2:5.3568258 3:0.0067129864 4:0.081932816 5:5.2982261 6:5.5885955 7:5.2 8:267.84129 9:17 10:0.025625147 
-100 -0 0 100 2:5.2679836 3:0.0023729668 4:0.048713107 5:5.3090866 6:5.3552218 7:5.1654235 8:263.39918 9:20 10:0.061095887 
-100 -0 0 100 2:5.2661941 3:0.0024399809 4:0.049396163 5:5.2212259 6:5.3558939 7:5.1676687 8:263.3097 9:10 10:0.091294493 
-100 -0 0 30.887435496476726 2:5.2673556 3:0.0022931759 4:0.047887117 5:5.2234471 6:5.3492803 7:5.1840139 8:263.36778 9:2 10:0.053814995 
-100 -0 0 100 2:5.2904851 3:0.0018159218 4:0.042613634 5:5.2609125 6:5.3648858 7:5.1658107 8:264.52425 9:16 10:0.033672656 
-100 -0 0 100 2:5.3119592 3:0.0040572843 4:0.063696816 5:5.2944499 6:5.4438957 7:5.1250756 8:265.59796 9:23 10:0.028059878 
-100 -0 0 100 2:5.3041583 3:0.0023050471 4:0.048010907 5:5.2927875 6:5.3920312 7:5.1800386 8:265.20791 9:15 10:0.085023413 
-100 -0 100 0 2:5.4013658 3:0.0018074524 4:0.042514143 5:5.4107301 6:5.4845966 7:5.2793181 8:270.06829 9:19 10:0.023013871 
-100 -0 100 0 2:5.397361 3:0.0025663434 4:0.05065909 5:5.3414979 6:5.5153966 7:5.290104 8:269.86805 9:24 10:0.032898923 
-100 -0 0 0 2:5.3893723 3:0.0021625227 4:0.046502932 5:5.3269503 6:5.4908651 7:5.2888562 8:269.46861 9:17 10:0.051446237 
-100 -0 0 0 2:5.3855407 3:0.0023430383 4:0.048404941 5:5.4064776 6:5.4801825 7:5.2344245 8:269.27704 9:2 10:0.074605184 
-100 -0 0 0 2:5.3844921 3:0.0017486027 4:0.041816297 5:5.3577981 6:5.4845966 7:5.283408 8:269.22461 9:19 10:0.069747051 
-0 -0 100 0 2:5.4013354 3:0.0024163761 4:0.049156648 5:5.4217709 6:5.5300633 7:5.2788256 8:270.06677 9:24 10:0.0042731831 
-100 -0 0 0 2:5.3942478 3:0.0033231167 4:0.057646481 5:5.3731927 6:5.5567257 7:5.2871542 8:269.71239 9:9 10:0.027856749 
-100 -0 0 0 2:5.3829352 3:0.0021924005 4:0.046823077 5:5.336853 6:5.4588644 7:5.2675991 8:269.14676 9:14 10:0.041921687 
-100 -0 0 0 2:5.3940884 3:0.0022418353 4:0.047348023 5:5.3414979 6:5.5183331 7:5.2840515 8:269.70442 9:17 10:0.048674318 
-100 -0 100 0 2:5.4143424 3:0.0016479017 4:0.040594355 5:5.4315007 6:5.5398556 7:5.3382019 8:270.71712 9:7 10:0.10020499 
-0 -0 100 0 2:5.4069559 3:0.0016840259 4:0.041036884 5:5.4315007 6:5.5070137 7:5.3222927 8:270.34779 9:24 10:0.0083543369 
-100 -0 0 0 2:5.3924799 3:0.0025287089 4:0.050286269 5:5.3981478 6:5.523622 7:5.2691555 8:269.62399 9:17 10:0.03666292 
-100 -0 0 0 2:5.3929208 3:0.0024852742 4:0.049852525 5:5.3903989 6:5.5094464 7:5.2643328 8:269.64604 9:20 10:0.13920399 
-0 -0 100 0 2:5.4064208 3:0.0013336117 4:0.036518649 5:5.4315007 6:5.509882 7:5.3271381 8:270.32104 9:3 10:0.024794347 
-100 -0 15.164426264159726 0 2:5.3969624 3:0.0020450111 4:0.045221799 5:5.3264998 6:5.4845966 7:5.2533418 8:269.84812 10:0.10297686 
-100 -0 73.785147238058244 0 2:5.3979176 3:0.0024220096 4:0.049213917 5:5.4129105 6:5.5196377 7:5.2989055 8:269.89588 9:13 10:0.0088876964 
-100 -0 100 0 2:5.4005359 3:0.0026759365 4:0.051729455 5:5.3747186 6:5.5349435 7:5.2920317 8:270.0268 9:3 10:0.078948534 
-0 -0 100 0 2:5.4014444 3:0.0019985387 4:0.044705019 5:5.4138341 6:5.5524769 7:5.3137181 8:270.07222 9:24 10:0.04861283 
-100 -0 100 11.621128248100888 2:5.3970086 3:0.0019545897 4:0.044210742 5:5.3569394 6:5.5103539 7:5.2859815 8:269.85043 9:24 10:0.12722377 
-100 -0 100 0 2:5.4099411 3:0.001521257 4:0.039003295 5:5.3670849 6:5.5046889 7:5.329803 8:270.49706 9:7 10:0.045508796 
-100 -0 100 0 2:5.4117057 3:0.0019852921 4:0.044556617 5:5.3925133 6:5.5378335 7:5.3036968 8:270.58529 9:14 10:0.059885576 
-100 -0 100 0 2:5.4050514 3:0.0022269984 4:0.047191083 5:5.3510747 6:5.5205072 7:5.3244342 8:270.25257 9:20 10:0.083490578 
-100 -0 100 0 2:5.399086 3:0.0019345219 4:0.0439832 5:5.4106192 6:5.4833931 7:5.2638009 8:269.9543 9:4 10:0.01486081 
-70.393001943727839 -0 0 0 2:5.3919824 3:0.0019413317 4:0.044060546 5:5.4235782 6:5.5079216 7:5.2840515 8:269.59912 9:24 10:0.0097459822 
-49.895068466432704 -0 100 0 2:5.4034005 3:0.0012306008 4:0.03507992 5:5.3856105 6:5.4996 7:5.3036214 8:270.17003 9:1 10:0.06812861 
-100 -0 100 0 2:5.4018598 3:0.0023027451 4:0.047986926 5:5.4315007 6:5.5004727 7:5.2506 8:270.09299 9:8 10:0.049645923 
-100 -0 0 0 2:5.3952521 3:0.0015744548 4:0.0396794 5:5.3292026 6:5.4816786 7:5.3137181 8:269.76261 9:17 10:0.049756951 
-100 -0 62.022912844976872 100 2:5.3925729 3:0.0020451144 4:0.045222941 5:5.3646622 6:5.5085025 7:5.2788256 8:269.62865 9:24 10:0.083142132 
-100 -0 0 0 2:5.3954546 3:0.0015172511 4:0.038951907 5:5.3370404 6:5.4718187 7:5.3066374 8:269.77273 9:13 10:0.12050981 
-100 -0 0 0 2:5.3918585 3:0.002342056 4:0.048394793 5:5.4001852 6:5.4717456 7:5.2506 8:269.59292 9:18 10:0.10348901 
-100 -0 100 0 2:5.4145447 3:0.0024095567 4:0.049087235 5:5.3655568 6:5.5378335 7:5.2971313 8:270.72724 9:9 10:0.036186568 
-100 -0 100 0 2:5.4095588 3:0.0021854904 4:0.046749228 5:5.3824158 6:5.5004727 7:5.3081824 8:270.47794 9:4 10:0.01077903 
-0 -0 0 100 2:4.636141 3:0.0020282056 4:0.045035604 5:4.5716518 6:4.7837224 7:4.5305629 8:231.80705 9:22 10:0.057431496 
-0 -0 0 82.140038169557599 2:4.622119 3:0.0032155667 4:0.056705967 5:4.5977821 6:4.7783261 7:4.4734774 8:231.10595 9:21 10:0.09136383 
-9.7495874816976809 -0 0 100 2:4.6387111 3:0.0019673849 4:0.044355213 5:4.6494301 6:4.7454399 7:4.5143327 8:231.93555 9:12 10:0.10814657 
-92.052727129909727 -0 0 100 2:4.6371167 3:0.0018448907 4:0.042952191 5:4.6342205 6:4.7585292 7:4.5192477 8:231.85583 9:17 10:0.025660364 
-0 -0 0 100 2:4.6369037 3:0.0019318158 4:0.043952427 5:4.6378443 6:4.7406329 7:4.5287967 8:231.84519 9:18 10:0.094028035 
-47.4999255233719 -0 0 100 2:4.6376853 3:0.0034185958 4:0.058468759 5:4.5888125 6:4.7741806 7:4.4677063 8:231.88427 9:24 10:0.060084149 
-0 -0 0 100 2:4.6329852 3:0.0018079221 4:0.042519667 5:4.6034335 6:4.7474204 7:4.4992888 8:231.64926 9:24 10:0.0087977675 
-19.883882136597101 -0 -0 100 2:5.6775243 3:0.24516637 4:0.49514278 5:4.5153073 6:7.1601397 7:4.5153073 8:283.87621 9:16 10:0.21387442 
-100 -0 -100 100 2:5.4677216 3:0.028452264 4:0.16867799 5:5.1722722 6:6.0187042 7:5.1722722 8:273.38608 9:21 10:0.3035259 
-0 -1.24103665048657 -0 0 2:5.7916617 3:0.0036792186 4:0.060656563 5:5.8030682 6:5.9207432 7:5.6262599 8:289.58308 10:0.13509437 
-100 -0 -100 18.336245547705463 2:5.4481813 3:0.009152711 4:0.095669802 5:5.3881722 6:5.6342524 7:5.2891965 8:272.40906 9:14 10:0.038194392 
-0 -0.31730076470289204 -0 0 2:5.8106085 3:0.0071973627 4:0.084837272 5:5.7708232 6:5.9772234 7:5.610098 8:290.53042 9:24 10:0.011510472 
-0 -1.3294564293341731 -0 0 2:5.8136064 3:0.020204564 4:0.14214276 5:5.5000364 6:6.1766658 7:5.5000364 8:290.68032 9:22 10:0.14926691 
-100 -0 -100 0 2:5.4646166 3:0.0089332206 4:0.094515716 5:5.3773599 6:5.6498496 7:5.1979227 8:273.23083 9:24 10:0.079917759 
-100 -0 -100 100 2:5.3904834 3:0.0026484446 4:0.051463041 5:5.3630588 6:5.4886428 7:5.2880998 8:269.52417 9:10 10:0.13988741 
-100 -0 -100 100 2:5.3827626 3:0.015227031 4:0.12339786 5:5.1194531 6:5.6991578 7:5.1194531 8:269.13813 9:23 10:0.18005851 
-0 -0 -100 0 2:5.4855017 3:0.0052874216 4:0.072714659 5:5.5235496 6:5.6593286 7:5.3085215 8:274.27508 9:2 10:0.019744379 
-100 -0 -100 0 2:5.476703 3:0.0028363585 4:0.053257474 5:5.4798905 6:5.5751233 7:5.3394382 8:273.83515 9:7 10:0.011425588 
-0 -0 -100 0 2:5.4733418 3:0.0028977026 4:0.053830313 5:5.5544217 6:5.5923162 7:5.3462884 8:273.66709 9:3 10:0.01822929 
-0 -0 -100 0 2:5.4878677 3:0.0026844604 4:0.051811779 5:5.4764222 6:5.6195018 7:5.4034804 8:274.39338 9:23 10:0.068274774 
-100 -0 -100 0 2:5.4797767 3:0.0021917267 4:0.046815881 5:5.4798905 6:5.5972851 7:5.3518595 8:273.98883 9:12 10:0.050574504 
-100 -0 -100 0 2:5.4749944 3:0.0040277965 4:0.063464923 5:5.450578 6:5.598857 7:5.3214284 8:273.74972 9:6 10:0.052938181 
-0 -0 -100 0 2:5.4863619 3:0.0021694427 4:0.046577277 5:5.4236888 6:5.6038201 7:5.3924762 8:274.31809 9:16 10:0.070587682 
-0 -0 -100 0 2:5.4924443 3:0.001959611 4:0.044267494 5:5.5061057 6:5.5837622 7:5.395146 8:274.62222 9:5 10:0.0053671553 
-100 -0 -100 0 2:5.4811839 3:0.0029115888 4:0.05395914 5:5.4303223 6:5.6104189 7:5.368389 8:274.05919 9:12 10:0.060637639 
-0 -0 -100 0 2:5.4845514 3:0.0022479254 4:0.047412292 5:5.5061057 6:5.598857 7:5.3766904 8:274.22757 9:12 10:0.019620885 
-0 -0 -64.567982377561023 0 2:5.4922374 3:0.0034006201 4:0.058314836 5:5.4240944 6:5.6361689 7:5.368389 8:274.61187 9:1 10:0.073506295 
-79.815905304269535 -0 -100 0 2:5.4835653 3:0.0043755397 4:0.066147863 5:5.5607913 6:5.6353882 7:5.3483829 8:274.17827 9:14 10:0.099980365 
-0 -0 -100 0 2:5.4872745 3:0.0024506423 4:0.049503962 5:5.4664431 6:5.598857 7:5.3905473 8:274.36372 9:3 10:0.078401859 
-0 -0 -100 0 2:5.4829632 3:0.0025781027 4:0.050775021 5:5.4798905 6:5.5954624 7:5.3462884 8:274.14816 9:18 10:0.029897233 
-0 -0 -100 0 2:5.4852175 3:0.0029090937 4:0.053936014 5:5.4809123 6:5.616725 7:5.3679791 8:274.26087 9:1 10:0.03592343 
-100 -0 -100 0 2:5.4829239 3:0.0079375125 4:0.089092719 5:5.479489 6:5.6547679 7:5.101294 8:274.14619 9:17 10:0.20199718 
-0 -0 -100 0 2:5.4921059 3:0.0047402869 4:0.068849742 5:5.4176379 6:5.6223127 7:5.3428083 8:274.6053 9:6 10:0.057203763 
-100 -0 -0 0 2:5.4923164 3:0.010780823 4:0.10383074 5:5.1923405 6:5.7267443 7:5.1923405 8:274.61582 9:20 10:0.049257696 
-0 -0 -100 0 2:5.4921392 3:0.003855159 4:0.062089927 5:5.5605036 6:5.6326193 7:5.368985 8:274.60696 9:5 10:0.0037673167 
-100 -0 -100 0 2:5.4734071 3:0.0027826464 4:0.052750795 5:5.4600366 6:5.6149443 7:5.3193609 8:273.67036 9:17 10:0.033211853 
-100 -0 -100 100 2:5.4636391 3:0.021143683 4:0.14540868 5:5.1087376 6:5.730794 7:5.1087376 8:273.18196 9:10 10:0.4360917 
-100 -0 -0 0 2:5.4922396 3:0.0108403 4:0.10411676 5:5.2105278 6:5.7585068 7:5.2105278 8:274.61198 9:20 10:0.051851821 
-100 -0 -0 0 2:5.5143334 3:0.0108947 4:0.10437768 5:5.4820069 6:5.7740454 7:5.0578256 8:275.71667 9:12 10:0.09687736 
-100 -0 -100 100 2:5.3618692 3:0.12247083 4:0.34995833 5:4.7650813 6:6.426881 7:4.7650813 8:268.09346 9:24 10:0.17429484 
-0 -0 -100 0 2:5.4851763 3:0.0054408526 4:0.073762135 5:5.3613804 6:5.6493185 7:5.3613804 8:274.25882 9:24 10:0.006583174 
-0 -0 -86.404503969633893 0 2:5.487374 3:0.0041821892 4:0.064669848 5:5.4992727 6:5.6987367 7:5.3477472 8:274.3687 9:24 10:0.0040084165 
-0 -0 -100 0 2:5.4898372 3:0.0035759476 4:0.059799228 5:5.4105083 6:5.6037844 7:5.3600746 8:274.49186 9:8 10:0.037905686 
-0 -0 -0 38.019094230494986 2:5.5830755 3:0.12957213 4:0.35996129 5:5.7155577 6:6.5577435 7:4.826593 8:279.15377 9:19 10:0.12150519 
-100 -0 -100 96.483747287278192 2:5.4812907 3:0.019188642 4:0.13852307 5:5.5411912 6:5.6975784 7:4.9737712 8:274.06453 9:24 10:0.29097571 
-100 -0 -100 0 2:5.48342 3:0.0078414983 4:0.088552235 5:5.1637583 6:5.6211387 7:5.1637583 8:274.171 9:9 10:0.12711948 
-100 -0 -0 0 2:5.502486 3:0.018327357 4:0.13537857 5:5.5037805 6:6.2435887 7:5.2918806 8:275.1243 9:1 10:0.37300181 
-100 -0 -0 0 2:5.494695 3:0.0053025623 4:0.072818695 5:5.3684262 6:5.6845756 7:5.3684262 8:274.73475 9:9 10:0.13307195 
-100 -0 -0 0 2:5.535914 3:0.030760495 4:0.1753867 5:5.5265541 6:6.6362941 7:5.3813753 8:276.7957 9:3 10:0.34763296 
-100 -0 -0 0 2:5.4926452 3:0.0046888531 4:0.068475201 5:5.4834296 6:5.7126176 7:5.3168788 8:274.63226 9:6 10:0.15992172 
-0 -0 -100 0 2:5.4866237 3:0.0057766194 4:0.076004075 5:5.4895537 6:5.6564653 7:5.2894234 8:274.33118 9:23 10:0.02917923 
-100 -0 -0 84.368929255555628 2:5.4935249 3:0.026168185 4:0.16176583 5:5.3264998 6:6.1869863 7:5.103489 8:274.67624 9:4 10:0.25739799 
-100 -0 -100 100 2:4.8605479 3:0.0027777371 4:0.052704242 5:4.8272559 6:4.9845361 7:4.7561329 8:243.0274 9:1 10:0.040121795 
-100 -0 -100 100 2:4.8764271 3:0.0030027909 4:0.054797727 5:4.8501546 6:4.9852583 7:4.7915759 8:243.82135 9:20 10:0.051809755 
-100 -0 -0 -0 2:5.1771649 3:1.0216193 4:1.0107518 5:3.5286825 6:7.3461827 7:3.5286825 8:258.85825 9:22 10:0.27540057 
-100 -0 -0 -0 2:5.1503684 3:0.89986546 4:0.94861239 5:3.5010855 6:7.0860144 7:3.5010855 8:257.51842 9:11 10:0.16986852 
-100 -0 -76.108832410461247 -100 2:5.330899 3:0.73998014 4:0.86022098 5:3.8024203 6:7.2294121 7:3.8024203 8:266.54495 9:11 10:0.29119319 
-100 -0 -0 -100 2:5.5454269 3:1.3794002 4:1.1744787 5:3.5941063 6:8.532151 7:3.5941063 8:277.27135 9:5 10:0.85089789 
-100 -0 -0 -0 2:5.142192 3:0.88062163 4:0.93841442 5:3.7364154 6:7.618425 7:3.7364154 8:257.1096 9:19 10:0.16082443 
-100 -0 -0 -0 2:5.0336056 3:0.63662284 4:0.79788649 5:3.524202 6:6.8019409 7:3.524202 8:251.68028 9:16 10:0.34469663 
-100 -0 -0 -0 2:5.0272211 3:0.74832761 4:0.86505931 5:3.6783692 6:7.2085505 7:3.6783692 8:251.36106 9:12 10:0.60748325 
-100 -0 -0 -100 2:5.0823487 3:0.51581152 4:0.71820019 5:3.7542509 6:6.5334524 7:3.7542509 8:254.11744 9:9 10:0.68348942 
-100 -0 -0 -0 2:4.9773128 3:0.53221354 4:0.72952967 5:3.8753064 6:7.0520635 7:3.8753064 8:248.86564 9:15 10:0.2080989 
-0 -0 -100 -0 2:4.7662247 3:0.46049452 4:0.67859747 5:3.8183766 6:6.7325181 7:3.8183766 8:238.31123 9:24 10:0.061465049 
-100 -0 -0 -0 2:4.9873728 3:0.4815927 4:0.6939688 5:3.6835309 6:6.7236002 7:3.6835309 8:249.36864 9:8 10:0.35805676 
-100 -0 -0 -0 2:5.0322938 3:0.64661941 4:0.80412649 5:4.1761705 6:6.8425434 7:3.7302547 8:251.61469 9:15 10:0.49427153 
-0 -0 -100 -0 2:4.7760404 3:0.48408644 4:0.69576321 5:4.7940797 6:6.8427772 7:3.4947961 8:238.80202 9:22 10:0.42348811 
-76.947434701161939 -0 -0 -0 2:5.0098866 3:0.61286836 4:0.78285909 5:3.7528123 6:6.6576272 7:3.7528123 8:250.49433 9:24 10:0.0051828649 
-100 -0 -0 -0 2:5.1081619 3:0.6698417 4:0.81843858 5:3.5830713 6:6.8636433 7:3.5830713 8:255.4081 9:21 10:0.32182004 
-100 -0 -0 -0 2:5.1006552 3:0.60372439 4:0.77699703 5:3.6519036 6:6.9483523 7:3.6519036 8:255.03276 9:10 10:0.76428942 
-0 -0 -100 -0 2:4.8242566 3:0.40034027 4:0.63272448 5:3.9077871 6:6.3119252 7:3.9077871 8:241.21283 9:11 10:0.23943867 
-100 -0 -0 -0 2:4.9981949 3:0.55346391 4:0.74395155 5:3.9976493 6:7.0003428 7:3.9976493 8:249.90974 9:21 10:0.23485771 
-100 -0 -0 -0 2:5.0497099 3:0.50654978 4:0.71172311 5:3.8942008 6:7.4195687 7:3.8942008 8:252.4855 9:24 10:0.12108771 
-100 -0 -0 -0 2:5.1236815 3:0.48649555 4:0.69749233 5:3.8269048 6:6.5051979 7:3.8269048 8:256.18408 9:23 10:0.068831307 
-100 -0 -0 -77.954195895240929 2:5.1486828 3:0.45676187 4:0.6758416 5:4.0114835 6:6.8567339 7:4.0114835 8:257.43414 9:20 10:0.65007433 
-100 -0 -0 -0 2:5.1569388 3:0.65983029 4:0.81229938 5:3.4503333 6:6.6675033 7:3.4503333 8:257.84694 9:19 10:0.26289312 
-100 -0 -0 -0 2:5.180164 3:0.96433245 4:0.9820043 5:3.3991175 6:6.9044334 7:3.3991175 8:259.0082 9:23 10:0.50069511 
-100 -0 -0 -0 2:5.1416795 3:0.79523615 4:0.89176014 5:3.4655447 6:6.9678404 7:3.4655447 8:257.08397 9:24 10:0.34550259 
-100 -0 -0 -0 2:5.1525139 3:0.83900099 4:0.91596997 5:3.6822819 6:7.5173133 7:3.6822819 8:257.62569 9:23 10:0.44490474 
-5.0921717538418134 -0 -0 -0 2:5.1015197 3:0.87413716 4:0.93495303 5:3.1603164 6:6.6094175 7:3.1603164 8:255.07598 9:16 10:0.3171499 
-100 -0 -0 -0 2:5.0251884 3:0.7304257 4:0.85464946 5:3.2558255 6:6.4529683 7:3.2558255 8:251.25942 9:10 10:0.35579538 
-100 -0 -0 -0 2:5.0235694 3:0.75584684 4:0.86939452 5:3.6089334 6:6.8517151 7:3.6089334 8:251.17847 9:12 10:0.19405487 
-100 -0 -0 -0 2:5.0244251 3:0.62336819 4:0.78953669 5:3.6741802 6:6.6598498 7:3.6741802 8:251.22126 9:24 10:0.50725644 
-100 -0 -0 -0 2:5.1747105 3:0.92646724 4:0.96253168 5:3.4275356 6:6.7143131 7:3.4275356 8:258.73553 9:19 10:0.1452982 
-0 -0 -81.108405988920779 -0 2:4.7914688 3:0.62711488 4:0.79190585 5:3.6080466 6:6.6636927 7:3.6080466 8:239.57344 9:5 10:0.28469214 
-100 -0 -0 -0 2:5.1585057 3:0.85089137 4:0.92243773 5:3.3804733 6:6.8904862 7:3.3804733 8:257.92528 9:23 10:1.0407874 
-100 -0 -0 -0 2:4.9837396 3:0.45129193 4:0.67178265 5:4.3646764 6:6.5405504 7:3.4103959 8:249.18698 9:23 10:0.22052366 
-0.50610997974523364 -0 -100 -0 2:4.9116429 3:0.40182043 4:0.63389308 5:3.8485842 6:6.412519 7:3.8485842 8:245.58214 9:18 10:0.24779301 
-100 -0 -0 -0 2:5.3080539 3:1.1089634 4:1.0530733 5:3.4655447 6:7.2401657 7:3.4655447 8:265.4027 9:20 10:0.20183934 
-100 -0 -0 -0 2:5.1536207 3:0.80068921 4:0.89481239 5:3.3979994 6:7.5019731 7:3.3979994 8:257.68104 9:7 10:1.1056745 
-100 -0 -0 -0 2:5.3874825 3:1.1848801 4:1.088522 5:3.6827164 6:8.8277064 7:3.6827164 8:269.37413 9:14 10:0.57312431 
-100 -0 -100 -100 2:5.4393077 3:0.68261994 4:0.82620817 5:3.9904887 6:6.937723 7:3.9904887 8:271.96538 9:24 10:0.22293151 
-100 -0 -0 -100 2:5.5296949 3:1.5244339 4:1.2346797 5:3.544799 6:8.3685363 7:3.544799 8:276.48475 9:19 10:0.44307323 
-100 -0 -0 -0 2:5.2186561 3:0.96966868 4:0.98471756 5:3.4214032 6:7.5175262 7:3.4214032 8:260.9328 9:24 10:0.17355523 
-100 -0 -0 -0 2:5.4628636 3:1.4186253 4:1.1910606 5:3.2281264 6:9.078458 7:3.2281264 8:273.14318 9:20 10:0.51068324 
-100 -0 -0 -0 2:4.987549 3:0.54126651 4:0.73570817 5:3.9911903 6:7.1371983 7:3.9911903 8:249.37745 9:9 10:0.2096613 
-100 -0 -0 -0 2:5.1270168 3:0.5343784 4:0.7310119 5:3.7796296 6:7.0795763 7:3.7796296 8:256.35084 9:23 10:0.18206731 
-100 -0 -0 -0 2:5.000041 3:0.62571769 4:0.79102319 5:3.484939 6:6.9628155 7:3.484939 8:250.00205 9:10 10:0.36340529 
-100 -0 -0 -0 2:5.0952375 3:0.80236301 4:0.89574718 5:3.5916013 6:7.0906699 7:3.5916013 8:254.76187 9:12 10:0.62279953 
-100 -0 -0 -0 2:5.1091651 3:0.57838402 4:0.76051563 5:3.7226335 6:6.9414984 7:3.7226335 8:255.45825 9:24 10:0.068248498 
-100 -0 -0 -0 2:5.1710832 3:1.2519629 4:1.1189115 5:3.184211 6:7.3787804 7:3.184211 8:258.55416 9:8 10:0.48658251 
-100 -0 -0 -0 2:4.9820722 3:0.57164411 4:0.7560715 5:3.714889 6:7.3039715 7:3.714889 8:249.10361 9:9 10:0.34212826 
-100 -0 -0 -0 2:5.062345 3:0.8077513 4:0.89874985 5:3.7557955 6:7.3924286 7:3.7557955 8:253.11725 9:14 10:0.41447707 
-100 -0 -0 -0 2:5.0540913 3:0.80622482 4:0.89790023 5:5.6746806 6:6.9512877 7:3.2073665 8:252.70457 9:14 10:0.19559502 
-0 -0 -100 -0 2:4.8526991 3:0.6884955 4:0.82975629 5:5.0254552 6:6.5585669 7:3.2410492 8:242.63495 9:20 10:0.20289384 
-0 -0 -100 -0 2:4.7588534 3:0.47796188 4:0.69134787 5:3.6491095 6:6.3307819 7:3.6491095 8:237.94267 9:20 10:0.16801684 
-0 -0 -100 -0 2:4.7506809 3:0.59379919 4:0.77058367 5:3.7405347 6:6.5154585 7:3.7405347 8:237.53404 9:22 10:0.34157491 
-100 -0 -100 -100 2:5.0077183 3:0.18453297 4:0.42957301 5:4.2123628 6:6.1980965 7:4.2123628 8:250.38592 9:16 10:0.51786297 
-6.6176439294933722 -0 -0 -0 2:5.261784 3:1.6437494 4:1.2820879 5:3.1313256 6:7.4168727 7:3.1313256 8:263.0892 9:13 10:0.56182659 
-100 -0 -0 -0 2:5.2172596 3:1.5324827 4:1.2379349 5:3.2472142 6:7.3248345 7:3.2472142 8:260.86298 9:10 10:1.0167632 
-100 -0 -0 -0 2:5.1918564 3:0.77040298 4:0.87772603 5:3.6605464 6:7.959397 7:3.6605464 8:259.59282 9:24 10:0.62670663 
-100 -2.7929342126434511 -100 -100 2:5.7723955 3:1.5298906 4:1.2368875 5:3.7156426 6:8.74 7:3.7156426 8:288.61977 9:16 10:0.37899607 
-0 -0 -14.355389484880655 -0 2:4.9190231 3:0.50414794 4:0.71003376 5:4.0012998 6:6.5754087 7:4.0012998 8:245.95115 9:23 10:0.11559127 
-0 -0 -100 -0 2:4.7803545 3:0.66262666 4:0.81401883 5:5.31812 6:6.3352348 7:3.0605228 8:239.01773 9:22 10:0.072937238 
-100 -0 -0 -0 2:5.1513334 3:0.79127639 4:0.88953718 5:3.3467596 6:6.8758418 7:3.3467596 8:257.56667 9:14 10:0.50454356 
-100 -0 -0 -0 2:5.2534214 3:1.3846912 4:1.176729 5:3.3430525 6:7.280522 7:3.3430525 8:262.67107 9:14 10:0.48818298 
-100 -0 -0 -0 2:5.4643961 3:1.8863198 4:1.3734336 5:3.7747053 6:8.563574 7:3.7747053 8:273.2198 9:10 10:0.32408333 
-100 -0 -0 -31.173279030145952 2:4.9726856 3:0.71066973 4:0.84301229 5:3.5648282 6:6.9846976 7:3.5648282 8:248.63428 10:0.069026095 
-100 -0 -53.075974029872491 -100 2:5.3183045 3:1.2022611 4:1.0964767 5:5.9390572 6:7.2774996 7:3.1801887 8:265.91523 9:22 10:0.29260838 
-100 -0 -100 -100 2:5.54435 3:0.84268745 4:0.91798009 5:3.574409 6:7.2534406 7:3.574409 8:277.2175 9:18 10:0.36763975 
-100 -0 -0 -0 2:5.424876 3:1.3426 4:1.1587062 5:3.2864571 6:7.8396428 7:3.2864571 8:271.2438 9:17 10:0.91901017 
-100 -0 -0 -0 2:5.1373293 3:0.91513559 4:0.95662719 5:3.283961 6:6.7402077 7:3.283961 8:256.86647 9:19 10:0.15223985 
-100 -0 -100 -28.080541395647334 2:4.9303805 3:0.20069191 4:0.44798651 5:4.2184831 6:5.9902921 7:4.2184831 8:246.51903 9:24 10:0.11972084 
